   3.42046562e-03   3.42046562e-03   3.42046562e-03  -4.78457877e-02
   3.42046562e-03   3.42046562e-03  -4.78457877e-02   3.42046562e-03
   3.42046562e-03   3.42046562e-03   3.42046562e-03   3.42046562e-03
   3.42046562e-03   3.42046562e-03   3.42046562e-03   3.42046562e-03
   3.42046562e-03   3.42046562e-03   3.42046562e-03   3.42046562e-03
   3.42046562e-03   3.42046562e-03   3.42046562e-03   3.42046562e-03
   3.42046562e-03   3.42046562e-03   3.42046562e-03   3.42046562e-03
   3.42046562e-03   3.42046562e-03   3.42046562e-03   3.42046562e-03
   3.42046562e-03   3.42046562e-03   3.42046562e-03   3.42046562e-03
   3.42046562e-03   3.42046562e-03   3.42046562e-03   3.42046562e-03
   3.42046562e-03   3.42046562e-03   3.42046562e-03   3.42046562e-03
  -4.56309045e-02   2.97174751e-03   3.42046562e-03   3.42046562e-03
   3.42046562e-03   3.42046562e-03   3.42046562e-03   3.42046562e-03
   3.42046562e-03   3.42046562e-03  -4.56309045e-02  -4.56309045e-02
   3.42046562e-03   3.42046562e-03   3.42046562e-03   3.42046562e-03
   3.42046562e-03   3.42046562e-03   3.42046562e-03   3.42046562e-03
  -4.78457877e-02  -4.56309045e-02  -4.56309045e-02   3.42046562e-03
   3.42046562e-03   3.42046562e-03   3.42046562e-03   2.58205909e-03
   3.42046562e-03   3.42046562e-03   3.42046562e-03   3.42046562e-03
   3.42046562e-03   3.42046562e-03   3.42046562e-03   3.42046562e-03
   3.42046562e-03   3.42046562e-03   3.42046562e-03   3.42046562e-03
   3.42046562e-03   3.42046562e-03   3.42046562e-03   3.42046562e-03
   3.42046562e-03   3.42046562e-03   3.42046562e-03  -4.78457877e-02
   3.42046562e-03   3.42046562e-03   3.42046562e-03   3.42046562e-03
   3.42046562e-03  -4.78457877e-02   3.42046562e-03   3.42046562e-03
   3.42046562e-03   3.42046562e-03   3.42046562e-03   3.42046562e-03
   3.42046562e-03  -4.56309045e-02   3.42046562e-03   3.42046562e-03
   3.42046562e-03   3.42046562e-03   3.42046562e-03   3.42046562e-03
   3.42046562e-03   3.42046562e-03   3.42046562e-03   3.42046562e-03
   3.42046562e-03   3.42046562e-03   3.42046562e-03   3.42046562e-03
   3.42046562e-03   3.42046562e-03   3.42046562e-03   3.42046562e-03
   3.42046562e-03   3.42046562e-03   3.42046562e-03   3.42046562e-03
   2.32593737e-03   3.42046562e-03   3.42046562e-03   3.42046562e-03
   3.42046562e-03   3.42046562e-03   3.42046562e-03   3.42046562e-03
   3.42046562e-03   3.42046562e-03   3.42046562e-03   3.42046562e-03
   3.42046562e-03   3.42046562e-03   3.42046562e-03   3.42046562e-03
   3.42046562e-03   3.42046562e-03   3.42046562e-03   3.42046562e-03
   3.42046562e-03   3.42046562e-03   3.42046562e-03   3.42046562e-03
   3.42046562e-03   3.42046562e-03   3.42046562e-03   3.42046562e-03
   3.42046562e-03  -3.42046562e-03  -3.42046562e-03  -3.42046562e-03
   4.78457877e-02  -3.42046562e-03  -3.42046562e-03   4.78457877e-02
  -3.42046562e-03  -3.42046562e-03  -3.42046562e-03  -3.42046562e-03
  -3.42046562e-03  -3.42046562e-03  -3.42046562e-03  -3.42046562e-03
  -3.42046562e-03  -3.42046562e-03  -3.42046562e-03  -3.42046562e-03
  -3.42046562e-03  -3.42046562e-03  -3.42046562e-03  -3.42046562e-03
  -3.42046562e-03  -3.42046562e-03  -3.42046562e-03  -3.42046562e-03
  -3.42046562e-03  -3.42046562e-03  -3.42046562e-03  -3.42046562e-03
  -3.42046562e-03  -3.42046562e-03  -3.42046562e-03  -3.42046562e-03
  -3.42046562e-03  -3.42046562e-03  -3.42046562e-03  -3.42046562e-03
  -3.42046562e-03  -3.42046562e-03  -3.42046562e-03  -3.42046562e-03
  -3.42046562e-03   4.56309045e-02  -2.97174751e-03  -3.42046562e-03
  -3.42046562e-03  -3.42046562e-03  -3.42046562e-03  -3.42046562e-03
  -3.42046562e-03  -3.42046562e-03  -3.42046562e-03   4.56309045e-02
   4.56309045e-02  -3.42046562e-03  -3.42046562e-03  -3.42046562e-03
  -3.42046562e-03  -3.42046562e-03  -3.42046562e-03  -3.42046562e-03
  -3.42046562e-03   4.78457877e-02   4.56309045e-02   4.56309045e-02
  -3.42046562e-03  -3.42046562e-03  -3.42046562e-03  -3.42046562e-03
  -2.58205909e-03  -3.42046562e-03  -3.42046562e-03  -3.42046562e-03
  -3.42046562e-03  -3.42046562e-03  -3.42046562e-03  -3.42046562e-03
  -3.42046562e-03  -3.42046562e-03  -3.42046562e-03  -3.42046562e-03
  -3.42046562e-03  -3.42046562e-03  -3.42046562e-03  -3.42046562e-03
  -3.42046562e-03  -3.42046562e-03  -3.42046562e-03  -3.42046562e-03
   4.78457877e-02  -3.42046562e-03  -3.42046562e-03  -3.42046562e-03
  -3.42046562e-03  -3.42046562e-03   4.78457877e-02  -3.42046562e-03
  -3.42046562e-03  -3.42046562e-03  -3.42046562e-03  -3.42046562e-03
  -3.42046562e-03  -3.42046562e-03   4.56309045e-02  -3.42046562e-03
  -3.42046562e-03  -3.42046562e-03  -3.42046562e-03  -3.42046562e-03
  -3.42046562e-03  -3.42046562e-03  -3.42046562e-03  -3.42046562e-03
  -3.42046562e-03  -3.42046562e-03  -3.42046562e-03  -3.42046562e-03
  -3.42046562e-03  -3.42046562e-03  -3.42046562e-03  -3.42046562e-03
  -3.42046562e-03  -3.42046562e-03  -3.42046562e-03  -3.42046562e-03
  -3.42046562e-03  -2.32593737e-03  -3.42046562e-03  -3.42046562e-03
  -3.42046562e-03  -3.42046562e-03  -3.42046562e-03  -3.42046562e-03
  -3.42046562e-03  -3.42046562e-03  -3.42046562e-03  -3.42046562e-03
  -3.42046562e-03  -3.42046562e-03  -3.42046562e-03  -3.42046562e-03
  -3.42046562e-03  -3.42046562e-03  -3.42046562e-03  -3.42046562e-03
  -3.42046562e-03  -3.42046562e-03  -3.42046562e-03  -3.42046562e-03
  -3.42046562e-03  -3.42046562e-03  -3.42046562e-03  -3.42046562e-03
  -3.42046562e-03  -3.42046562e-03   9.96480521e-05  -5.91912740e-06
  -4.88352480e-05  -4.48936767e-05   9.96480521e-05  -5.91912740e-06
  -4.88352480e-05  -4.48936767e-05